{
  "policy_weights": [
    [
      0.015096179124939957,
      -0.0068457146953858055,
      0.003799332438261364,
      -0.015056207898731383,
      0.0110268958794792,
      0.0030619970535437297,
      0.0011313783914707319
    ],
    [
      -0.0017503756469070375,
      0.0013016134753141928,
      0.005650671229862875,
      -0.007746210767660751,
      -0.005615009483014312,
      0.014425474505890507,
      -2.9658416350026846e-05
    ],
    [
      0.013681606744804259,
      0.005805638603010587,
      0.011652355063063263,
      0.0076301783687069535,
      0.008922800286806946,
      -0.0006819650302538576,
      0.009638883178394108
    ],
    [
      0.0065055784761078785,
      -0.011230648833064025,
      0.0009604581075234986,
      -0.008930139944661998,
      0.0014441828938500823,
      -0.003441669646395193,
      -8.432680814579443e-05
    ],
    [
      -0.009491032223073285,
      0.003383006019829828,
      -0.004303710853261921,
      -0.0029286355274469084,
      -0.01137081569210861,
      -0.007217493025585034,
      -0.0031500077027626916
    ],
    [
      -0.0006197537154728045,
      0.007213115007828257,
      -0.005111184809848003,
      -0.004231165357201806,
      0.014541123767344356,
      0.017866053163635313,
      -0.0071643004541582945
    ],
    [
      -0.01084285593454901,
      0.00554238155119522,
      -0.012786384388126917,
      0.0031006609239757677,
      0.002615348553686459,
      -0.014203282266484173,
      0.0189173884293815
    ],
    [
      0.008297025924957728,
      0.00895699984780649,
      -0.002014664597548556,
      0.005286788206638012,
      -0.004631532806652785,
      -0.00722317822302464,
      0.0045118018401935555
    ],
    [
      0.0033129807652406496,
      -0.008500022125974536,
      -0.010275223611967685,
      -0.007171474280534933,
      0.011105434587848462,
      0.0029932497391617244,
      0.00179863511499502
    ],
    [
      0.012907412482046285,
      0.00485874347895229,
      0.007530284204256745,
      0.0035023386731776874,
      -0.00026626825086780825,
      0.007819465242549856,
      0.002948593680854717
    ],
    [
      0.0036543790476325274,
      -0.019507276186426198,
      0.006607547615000054,
      -0.012343251489400582,
      0.01037720656140644,
      0.025877365941955652,
      -0.0019885985963720675
    ],
    [
      0.006891780150166578,
      0.002831513371210838,
      -0.016668058859771597,
      -0.0025403779249594176,
      0.010571137631017745,
      0.008124072332500546,
      0.009468281768111772
    ]
  ],
  "value_weights": [
    [
      0.015053354860960082
    ],
    [
      0.00043079679507431005
    ],
    [
      0.00646086756512883
    ],
    [
      -0.02360664407331775
    ],
    [
      0.010687806199255509
    ],
    [
      -0.0008028205631479468
    ],
    [
      -0.001420502992399927
    ],
    [
      0.017959319982482444
    ],
    [
      -0.0009992702804943487
    ],
    [
      -0.016488554541877743
    ],
    [
      -0.0001450462947805293
    ],
    [
      0.0017463258756962002
    ]
  ],
  "update_count": 0
}